digraph Tree {
node [shape=box] ;
0 [label="X[7] <= 0.5\ngini = 0.366\nsamples = 32561\nvalue = [24720, 7841]"] ;
1 [label="X[4] <= 11.5\ngini = 0.495\nsamples = 13193\nvalue = [7275, 5918]"] ;
0 -> 1 [labeldistance=2.5, labelangle=45, headlabel="True"] ;
3 [label="X[10] <= 78.0\ngini = 0.442\nsamples = 9224\nvalue = [6178, 3046]"] ;
1 -> 3 ;
7 [label="X[4] <= 7.5\ngini = 0.417\nsamples = 8766\nvalue = [6170, 2596]"] ;
3 -> 7 ;
11 [label="gini = 0.186\nsamples = 1459\nvalue = [1308, 151]"] ;
7 -> 11 ;
12 [label="X[11] <= 39.5\ngini = 0.445\nsamples = 7307\nvalue = [4862, 2445]"] ;
7 -> 12 ;
13 [label="X[0] <= 18.5\ngini = 0.433\nsamples = 7007\nvalue = [4787, 2220]"] ;
12 -> 13 ;
17 [label="gini = 0.321\nsamples = 2272\nvalue = [1816, 456]"] ;
13 -> 17 ;
18 [label="X[12] <= 33.5\ngini = 0.468\nsamples = 4735\nvalue = [2971, 1764]"] ;
13 -> 18 ;
25 [label="gini = 0.185\nsamples = 427\nvalue = [383, 44]"] ;
18 -> 25 ;
26 [label="X[4] <= 8.5\ngini = 0.48\nsamples = 4308\nvalue = [2588, 1720]"] ;
18 -> 26 ;
35 [label="gini = 0.452\nsamples = 2401\nvalue = [1572, 829]"] ;
26 -> 35 ;
36 [label="gini = 0.498\nsamples = 1907\nvalue = [1016, 891]"] ;
26 -> 36 ;
14 [label="X[11] <= 51.5\ngini = 0.375\nsamples = 300\nvalue = [75, 225]"] ;
12 -> 14 ;
27 [label="gini = 0.088\nsamples = 218\nvalue = [10, 208]"] ;
14 -> 27 ;
28 [label="gini = 0.329\nsamples = 82\nvalue = [65, 17]"] ;
14 -> 28 ;
8 [label="gini = 0.034\nsamples = 458\nvalue = [8, 450]"] ;
3 -> 8 ;
4 [label="X[10] <= 78.0\ngini = 0.4\nsamples = 3969\nvalue = [1097, 2872]"] ;
1 -> 4 ;
15 [label="X[11] <= 39.5\ngini = 0.439\nsamples = 3356\nvalue = [1094, 2262]"] ;
4 -> 15 ;
23 [label="X[12] <= 30.0\ngini = 0.461\nsamples = 2999\nvalue = [1083, 1916]"] ;
15 -> 23 ;
29 [label="gini = 0.415\nsamples = 228\nvalue = [161, 67]"] ;
23 -> 29 ;
30 [label="X[0] <= 11.5\ngini = 0.444\nsamples = 2771\nvalue = [922, 1849]"] ;
23 -> 30 ;
37 [label="gini = 0.478\nsamples = 159\nvalue = [96, 63]"] ;
30 -> 37 ;
38 [label="gini = 0.432\nsamples = 2612\nvalue = [826, 1786]"] ;
30 -> 38 ;
24 [label="gini = 0.06\nsamples = 357\nvalue = [11, 346]"] ;
15 -> 24 ;
16 [label="gini = 0.01\nsamples = 613\nvalue = [3, 610]"] ;
4 -> 16 ;
2 [label="X[10] <= 90.5\ngini = 0.179\nsamples = 19368\nvalue = [17445, 1923]"] ;
0 -> 2 [labeldistance=2.5, labelangle=-45, headlabel="False"] ;
5 [label="X[7] <= 4.5\ngini = 0.146\nsamples = 18932\nvalue = [17431, 1501]"] ;
2 -> 5 ;
9 [label="X[4] <= 11.5\ngini = 0.095\nsamples = 17482\nvalue = [16610, 872]"] ;
5 -> 9 ;
19 [label="gini = 0.05\nsamples = 14036\nvalue = [13677, 359]"] ;
9 -> 19 ;
20 [label="X[0] <= 14.5\ngini = 0.253\nsamples = 3446\nvalue = [2933, 513]"] ;
9 -> 20 ;
31 [label="gini = 0.092\nsamples = 1484\nvalue = [1412, 72]"] ;
20 -> 31 ;
32 [label="X[12] <= 42.5\ngini = 0.348\nsamples = 1962\nvalue = [1521, 441]"] ;
20 -> 32 ;
33 [label="gini = 0.256\nsamples = 1250\nvalue = [1062, 188]"] ;
32 -> 33 ;
34 [label="gini = 0.458\nsamples = 712\nvalue = [459, 253]"] ;
32 -> 34 ;
10 [label="X[4] <= 9.5\ngini = 0.491\nsamples = 1450\nvalue = [821, 629]"] ;
5 -> 10 ;
21 [label="gini = 0.429\nsamples = 902\nvalue = [621, 281]"] ;
10 -> 21 ;
22 [label="gini = 0.464\nsamples = 548\nvalue = [200, 348]"] ;
10 -> 22 ;
6 [label="gini = 0.062\nsamples = 436\nvalue = [14, 422]"] ;
2 -> 6 ;
}
